/**
 * model_logic.js -- XGBoost model compiled to raw JS by m2cgen
 * Generated by Navis compile_model.py
 *
 * Usage:  import { score } from "./model_logic.js";
 *         const scores = score([...features]);
 *         const actionIdx = scores.indexOf(Math.max(...scores));
 *
 * Feature order (pass as a flat numeric array):
 *   [ 0] event_cause_enc  -- Event Cause
 *   [ 1] corridor_enc  -- Corridor
 *   [ 2] zone_enc  -- Zone
 *   [ 3] event_type_enc  -- Event Type
 *   [ 4] priority_enc  -- Priority
 *   [ 5] police_station_enc  -- Police Station
 *   [ 6] veh_type_enc  -- Vehicle Type
 *   [ 7] junction_enc  -- Junction
 *   [ 8] hour  -- Hour (IST)
 *   [ 9] day_of_week  -- Day of Week
 *   [10] road_closure  -- Road Closure
 *   [11] junction_freq  -- Junction Incident Load
 *   [12] junction_avg_res  -- Junction Avg Resolution
 *   [13] junction_hp_rate  -- Junction High-Priority Rate
 *   [14] junction_closure_rate  -- Junction Closure Rate
 *   [15] corridor_freq  -- Corridor Incident Load
 *   [16] corridor_avg_res  -- Corridor Avg Resolution
 *   [17] zone_freq  -- Zone Incident Load
 *   [18] zone_avg_res  -- Zone Avg Resolution
 *   [19] hour_block_freq  -- Hour-Block Frequency
 *   [20] ps_freq  -- Station Incident Load
 *   [21] ps_avg_res  -- Station Avg Resolution
 *   [22] adj_degree  -- Adjacent Junction Count
 *   [23] adj_max_weight  -- Max Cascade Weight
 *
 * Returns: [monitor, deploy_light, deploy_heavy, full_closure]
 */
export function score(input) {
    var var0;
    if (input[4] < 1.0) {
        var0 = -0.05331184;
    } else {
        if (input[3] < 1.0) {
            if (input[0] < 7.9004245) {
                var0 = 0.15667327;
            } else {
                if (input[0] < 10.0352) {
                    if (input[6] < 0.0028783868) {
                        if (input[20] < 74.38115) {
                            var0 = 0.06478049;
                        } else {
                            if (input[5] < 51.031822) {
                                var0 = -0.050981767;
                            } else {
                                var0 = 0.0;
                            }
                        }
                    } else {
                        var0 = 0.121599995;
                    }
                } else {
                    var0 = 0.14870588;
                }
            }
        } else {
            var0 = 0.15865152;
        }
    }
    var var1;
    if (input[4] < 1.0) {
        var1 = -0.052332163;
    } else {
        if (input[0] < 10.0352) {
            if (input[0] < 8.0) {
                var1 = 0.13675228;
            } else {
                if (input[6] < 0.0028783868) {
                    if (input[14] < 0.00038397277) {
                        var1 = 0.11406174;
                    } else {
                        if (input[5] < 52.0) {
                            if (input[20] < 74.38115) {
                                var1 = 0.06109157;
                            } else {
                                var1 = -0.047383707;
                            }
                        } else {
                            var1 = 0.094353914;
                        }
                    }
                } else {
                    var1 = 0.12982869;
                }
            }
        } else {
            var1 = 0.1369449;
        }
    }
    var var2;
    if (input[4] < 1.0) {
        var2 = -0.051438868;
    } else {
        if (input[10] < 0.995368) {
            var2 = 0.12069687;
        } else {
            if (input[3] < 1.0) {
                if (input[23] < 2.0) {
                    if (input[2] < 0.0005321058) {
                        var2 = 0.08205592;
                    } else {
                        if (input[21] < 64.73463) {
                            var2 = 0.055063408;
                        } else {
                            if (input[21] < 213.20374) {
                                var2 = -0.049994893;
                            } else {
                                var2 = -0.01310192;
                            }
                        }
                    }
                } else {
                    var2 = 0.0800495;
                }
            } else {
                if (input[19] < 1738.993) {
                    if (input[19] < 1333.0178) {
                        var2 = 0.112421274;
                    } else {
                        var2 = -0.047604702;
                    }
                } else {
                    var2 = 0.11574924;
                }
            }
        }
    }
    var var3;
    if (input[4] < 1.0) {
        var3 = -0.050594416;
    } else {
        if (input[10] < 1.0) {
            var3 = 0.10796867;
        } else {
            if (input[3] < 1.0) {
                if (input[0] < 7.0717144) {
                    var3 = 0.10835656;
                } else {
                    var3 = -0.050523315;
                }
            } else {
                if (input[0] < 9.002708) {
                    if (input[0] < 7.011756) {
                        var3 = 0.10211822;
                    } else {
                        var3 = -0.048185624;
                    }
                } else {
                    var3 = 0.10649;
                }
            }
        }
    }
    var var4;
    if (input[4] < 1.0) {
        var4 = -0.049808025;
    } else {
        if (input[3] < 1.0) {
            if (input[10] < 0.995368) {
                var4 = 0.100566916;
            } else {
                if (input[23] < 2.0) {
                    if (input[21] < 64.73463) {
                        var4 = 0.05734563;
                    } else {
                        if (input[2] < 0.0005321058) {
                            var4 = 0.06606146;
                        } else {
                            if (input[8] < 1.6300187) {
                                var4 = 0.030816209;
                            } else {
                                var4 = -0.04829008;
                            }
                        }
                    }
                } else {
                    var4 = 0.06750151;
                }
            }
        } else {
            var4 = 0.09715358;
        }
    }
    var var5;
    if (input[4] < 1.0) {
        var5 = -0.049077153;
    } else {
        if (input[10] < 1.0) {
            var5 = 0.090098456;
        } else {
            if (input[0] < 10.0352) {
                if (input[0] < 7.0717144) {
                    var5 = 0.092917554;
                } else {
                    if (input[19] < 197.65417) {
                        var5 = -0.017038;
                    } else {
                        var5 = -0.0492339;
                    }
                }
            } else {
                var5 = 0.08901801;
            }
        }
    }
    var var6;
    if (input[4] < 1.0) {
        var6 = -0.048396386;
    } else {
        if (input[3] < 1.0) {
            if (input[10] < 0.995368) {
                var6 = 0.085562415;
            } else {
                if (input[0] < 7.0717144) {
                    var6 = 0.087243944;
                } else {
                    var6 = -0.048158836;
                }
            }
        } else {
            if (input[10] < 1.0) {
                var6 = 0.08342041;
            } else {
                if (input[0] < 9.002708) {
                    if (input[0] < 7.011756) {
                        var6 = 0.07961428;
                    } else {
                        var6 = -0.05083931;
                    }
                } else {
                    var6 = 0.082676545;
                }
            }
        }
    }
    var var7;
    if (input[4] < 1.0) {
        var7 = -0.047766466;
    } else {
        if (input[10] < 1.0) {
            var7 = 0.07822031;
        } else {
            if (input[3] < 1.0) {
                if (input[0] < 7.0717144) {
                    var7 = 0.07993223;
                } else {
                    if (input[19] < 197.65417) {
                        var7 = -0.013349697;
                    } else {
                        var7 = -0.047773495;
                    }
                }
            } else {
                if (input[0] < 9.002708) {
                    if (input[0] < 7.011756) {
                        var7 = 0.07419107;
                    } else {
                        var7 = -0.050660633;
                    }
                } else {
                    var7 = 0.077300906;
                }
            }
        }
    }
    var var8;
    if (input[4] < 1.0) {
        var8 = -0.04718043;
    } else {
        if (input[10] < 1.0) {
            var8 = 0.07370633;
        } else {
            if (input[20] < 74.38115) {
                var8 = 0.065944664;
            } else {
                if (input[23] < 2.0) {
                    if (input[8] < 2.0160224) {
                        if (input[22] < 3.0115778) {
                            var8 = 0.0668685;
                        } else {
                            var8 = -0.037013207;
                        }
                    } else {
                        if (input[21] < 73.72601) {
                            if (input[5] < 28.051485) {
                                var8 = 0.066009976;
                            } else {
                                var8 = -0.031203832;
                            }
                        } else {
                            if (input[8] < 11.0) {
                                var8 = -0.04167704;
                            } else {
                                var8 = -0.01754676;
                            }
                        }
                    }
                } else {
                    var8 = 0.066672035;
                }
            }
        }
    }
    var var9;
    if (input[4] < 1.0) {
        var9 = -0.04663529;
    } else {
        if (input[3] < 1.0) {
            if (input[0] < 7.9004245) {
                var9 = 0.07119827;
            } else {
                if (input[6] < 0.0028783868) {
                    if (input[20] < 74.38115) {
                        var9 = 0.046674933;
                    } else {
                        if (input[5] < 50.0) {
                            if (input[8] < 2.0160224) {
                                var9 = 0.0015226784;
                            } else {
                                var9 = -0.043960597;
                            }
                        } else {
                            if (input[0] < 8.140416) {
                                var9 = -0.033442803;
                            } else {
                                var9 = 0.03765056;
                            }
                        }
                    }
                } else {
                    var9 = 0.06831767;
                }
            }
        } else {
            var9 = 0.06926589;
        }
    }
    var var10;
    if (input[4] < 1.0) {
        var10 = -0.04615322;
    } else {
        if (input[10] < 1.0) {
            var10 = 0.06662455;
        } else {
            if (input[3] < 1.0) {
                if (input[0] < 7.0717144) {
                    var10 = 0.07007282;
                } else {
                    if (input[19] < 197.65417) {
                        var10 = -0.016496822;
                    } else {
                        var10 = -0.046187267;
                    }
                }
            } else {
                if (input[0] < 9.002708) {
                    if (input[0] < 7.011756) {
                        var10 = 0.06487857;
                    } else {
                        var10 = -0.05030164;
                    }
                } else {
                    var10 = 0.066965275;
                }
            }
        }
    }
    var var11;
    if (input[4] < 1.0) {
        var11 = -0.045685902;
    } else {
        if (input[10] < 1.0) {
            var11 = 0.06380176;
        } else {
            if (input[3] < 1.0) {
                if (input[0] < 7.0717144) {
                    var11 = 0.06697821;
                } else {
                    var11 = -0.0455553;
                }
            } else {
                if (input[0] < 9.002708) {
                    if (input[0] < 7.011756) {
                        var11 = 0.06138438;
                    } else {
                        var11 = -0.050927803;
                    }
                } else {
                    var11 = 0.06401964;
                }
            }
        }
    }
    var var12;
    if (input[4] < 1.0) {
        var12 = -0.045249533;
    } else {
        if (input[10] < 1.0) {
            var12 = 0.061338514;
        } else {
            if (input[3] < 1.0) {
                if (input[0] < 4.8147388) {
                    var12 = 0.06353805;
                } else {
                    if (input[19] < 197.65417) {
                        var12 = -0.013039564;
                    } else {
                        var12 = -0.045252733;
                    }
                }
            } else {
                if (input[0] < 8.70727) {
                    if (input[0] < 7.011756) {
                        var12 = 0.058735125;
                    } else {
                        var12 = -0.046968658;
                    }
                } else {
                    var12 = 0.06137429;
                }
            }
        }
    }
    var var13;
    if (input[16] < 126.75488) {
        if (input[16] < 46.858303) {
            if (input[1] < 5.918543) {
                var13 = -0.03665232;
            } else {
                var13 = 0.040525556;
            }
        } else {
            if (input[7] < 293.0) {
                var13 = -0.044704255;
            } else {
                if (input[19] < 2552.0) {
                    var13 = -0.037371002;
                } else {
                    if (input[9] < 2.0017343) {
                        var13 = 0.0;
                    } else {
                        var13 = -0.023370955;
                    }
                }
            }
        }
    } else {
        if (input[10] < 1.0) {
            if (input[16] < 126.900024) {
                var13 = 0.059200328;
            } else {
                var13 = -0.04426224;
            }
        } else {
            if (input[0] < 13.0) {
                if (input[0] < 7.0717144) {
                    if (input[16] < 126.900024) {
                        var13 = 0.06018116;
                    } else {
                        var13 = -0.044203274;
                    }
                } else {
                    if (input[0] < 10.758229) {
                        if (input[6] < 2.0) {
                            var13 = -0.045066312;
                        } else {
                            var13 = -0.014645288;
                        }
                    } else {
                        if (input[16] < 127.99812) {
                            var13 = 0.03339186;
                        } else {
                            var13 = -0.04050774;
                        }
                    }
                }
            } else {
                if (input[16] < 126.900024) {
                    var13 = 0.059088614;
                } else {
                    var13 = -0.042908672;
                }
            }
        }
    }
    var var14;
    if (input[4] < 1.0) {
        var14 = -0.044501875;
    } else {
        if (input[10] < 0.995368) {
            var14 = 0.057338443;
        } else {
            if (input[3] < 1.0) {
                if (input[0] < 4.8147388) {
                    var14 = 0.059393033;
                } else {
                    var14 = -0.044286396;
                }
            } else {
                if (input[0] < 9.002708) {
                    if (input[0] < 7.011756) {
                        var14 = 0.05490236;
                    } else {
                        var14 = -0.049697954;
                    }
                } else {
                    var14 = 0.057220314;
                }
            }
        }
    }
    var var15;
    if (input[4] < 1.0) {
        var15 = -0.044152692;
    } else {
        if (input[10] < 0.995368) {
            var15 = 0.055646744;
        } else {
            if (input[3] < 1.0) {
                if (input[0] < 7.0717144) {
                    var15 = 0.057083268;
                } else {
                    if (input[8] < 22.0) {
                        var15 = -0.044106178;
                    } else {
                        var15 = -0.014769148;
                    }
                }
            } else {
                if (input[0] < 9.002708) {
                    if (input[0] < 7.011756) {
                        var15 = 0.053329315;
                    } else {
                        var15 = -0.049972992;
                    }
                } else {
                    var15 = 0.055489764;
                }
            }
        }
    }
    var var16;
    if (input[4] < 1.0) {
        var16 = -0.04384152;
    } else {
        if (input[10] < 1.0) {
            var16 = 0.054158382;
        } else {
            if (input[3] < 1.0) {
                if (input[0] < 7.0717144) {
                    var16 = 0.0556948;
                } else {
                    var16 = -0.043573778;
                }
            } else {
                if (input[0] < 9.002708) {
                    if (input[0] < 7.011756) {
                        var16 = 0.05177108;
                    } else {
                        var16 = -0.04978439;
                    }
                } else {
                    var16 = 0.053873003;
                }
            }
        }
    }
    var var17;
    if (input[4] < 1.0) {
        var17 = -0.043542497;
    } else {
        if (input[10] < 1.0) {
            var17 = 0.052844796;
        } else {
            if (input[3] < 1.0) {
                if (input[21] < 64.73463) {
                    var17 = 0.03144546;
                } else {
                    if (input[2] < 0.0005321058) {
                        var17 = 0.036933772;
                    } else {
                        if (input[23] < 1.9113392) {
                            if (input[17] < 233.1616) {
                                var17 = 0.0027934143;
                            } else {
                                var17 = -0.041548703;
                            }
                        } else {
                            var17 = 0.022684023;
                        }
                    }
                }
            } else {
                if (input[9] < 1.0) {
                    if (input[21] < 87.124664) {
                        var17 = 0.027787909;
                    } else {
                        var17 = 0.0;
                    }
                } else {
                    if (input[21] < 130.6725) {
                        var17 = 0.05132708;
                    } else {
                        if (input[20] < 178.04974) {
                            var17 = 0.049364418;
                        } else {
                            if (input[5] < 36.605995) {
                                var17 = -0.014677772;
                            } else {
                                var17 = 0.020737525;
                            }
                        }
                    }
                }
            }
        }
    }
    var var18;
    if (input[4] < 1.0) {
        var18 = -0.04328628;
    } else {
        if (input[10] < 0.995368) {
            var18 = 0.051660717;
        } else {
            if (input[3] < 1.0) {
                if (input[0] < 7.0717144) {
                    var18 = 0.05340623;
                } else {
                    if (input[19] < 197.65417) {
                        var18 = -0.0061135893;
                    } else {
                        var18 = -0.043185096;
                    }
                }
            } else {
                if (input[0] < 9.002708) {
                    if (input[0] < 7.011756) {
                        var18 = 0.048436984;
                    } else {
                        var18 = -0.049868792;
                    }
                } else {
                    var18 = 0.051236;
                }
            }
        }
    }
    var var19;
    if (input[4] < 1.0) {
        var19 = -0.04303321;
    } else {
        if (input[10] < 1.0) {
            var19 = 0.050598025;
        } else {
            if (input[3] < 1.0) {
                if (input[0] < 7.0717144) {
                    var19 = 0.051464595;
                } else {
                    if (input[19] < 197.65417) {
                        var19 = -0.006100382;
                    } else {
                        var19 = -0.04291846;
                    }
                }
            } else {
                if (input[0] < 9.002708) {
                    if (input[0] < 7.011756) {
                        var19 = 0.047877148;
                    } else {
                        var19 = -0.04881415;
                    }
                } else {
                    var19 = 0.05009277;
                }
            }
        }
    }
    var var20;
    if (input[4] < 1.0) {
        var20 = -0.04281405;
    } else {
        if (input[10] < 1.0) {
            var20 = 0.04965299;
        } else {
            if (input[0] < 10.0352) {
                if (input[0] < 7.0717144) {
                    var20 = 0.050313625;
                } else {
                    if (input[19] < 197.65417) {
                        var20 = -0.006069337;
                    } else {
                        var20 = -0.043083075;
                    }
                }
            } else {
                var20 = 0.04914167;
            }
        }
    }
    var var21;
    if (input[4] < 1.0) {
        var21 = -0.042593203;
    } else {
        if (input[10] < 1.0) {
            var21 = 0.048786774;
        } else {
            if (input[3] < 1.0) {
                if (input[0] < 7.0717144) {
                    var21 = 0.049423385;
                } else {
                    if (input[19] < 197.65417) {
                        var21 = -0.00083920336;
                    } else {
                        var21 = -0.04243103;
                    }
                }
            } else {
                if (input[0] < 9.002708) {
                    if (input[0] < 7.011756) {
                        var21 = 0.04555168;
                    } else {
                        var21 = -0.04881496;
                    }
                } else {
                    var21 = 0.048274517;
                }
            }
        }
    }
    var var22;
    if (input[4] < 1.0) {
        var22 = -0.042393234;
    } else {
        if (input[10] < 1.0) {
            var22 = 0.048021182;
        } else {
            if (input[3] < 1.0) {
                if (input[0] < 7.0717144) {
                    var22 = 0.04806911;
                } else {
                    var22 = -0.041922893;
                }
            } else {
                if (input[0] < 9.002708) {
                    if (input[0] < 7.011756) {
                        var22 = 0.0446894;
                    } else {
                        var22 = -0.048871566;
                    }
                } else {
                    var22 = 0.047318;
                }
            }
        }
    }
    var var23;
    if (input[4] < 1.0) {
        var23 = -0.042202987;
    } else {
        if (input[10] < 1.0) {
            var23 = 0.047319848;
        } else {
            if (input[3] < 1.0) {
                if (input[0] < 7.0717144) {
                    var23 = 0.047279287;
                } else {
                    var23 = -0.041702118;
                }
            } else {
                if (input[0] < 9.002708) {
                    if (input[0] < 7.011756) {
                        var23 = 0.04330785;
                    } else {
                        var23 = -0.04661138;
                    }
                } else {
                    var23 = 0.04642933;
                }
            }
        }
    }
    var var24;
    if (input[4] < 1.0) {
        var24 = -0.04202584;
    } else {
        if (input[10] < 1.0) {
            var24 = 0.046693698;
        } else {
            if (input[3] < 1.0) {
                if (input[0] < 7.0717144) {
                    var24 = 0.046266206;
                } else {
                    if (input[19] < 197.65417) {
                        var24 = -0.01366207;
                    } else {
                        var24 = -0.041815534;
                    }
                }
            } else {
                if (input[0] < 9.002708) {
                    if (input[0] < 7.011756) {
                        var24 = 0.042459693;
                    } else {
                        var24 = -0.044359364;
                    }
                } else {
                    var24 = 0.045773413;
                }
            }
        }
    }
    var var25;
    if (input[4] < 1.0) {
        var25 = -0.041863885;
    } else {
        if (input[10] < 1.0) {
            var25 = 0.046116605;
        } else {
            if (input[3] < 1.0) {
                if (input[0] < 4.5888934) {
                    var25 = 0.045138177;
                } else {
                    if (input[19] < 218.18147) {
                        var25 = 0.0;
                    } else {
                        var25 = -0.041635778;
                    }
                }
            } else {
                if (input[0] < 9.002708) {
                    if (input[0] < 7.011756) {
                        var25 = 0.041827727;
                    } else {
                        var25 = -0.045212034;
                    }
                } else {
                    var25 = 0.04512936;
                }
            }
        }
    }
    var var26;
    if (input[4] < 1.0) {
        var26 = -0.041722696;
    } else {
        if (input[10] < 1.0) {
            var26 = 0.045603972;
        } else {
            if (input[3] < 1.0) {
                if (input[0] < 7.0717144) {
                    var26 = 0.04414846;
                } else {
                    if (input[19] < 218.18147) {
                        var26 = -0.0016037462;
                    } else {
                        var26 = -0.041469354;
                    }
                }
            } else {
                if (input[0] < 9.002708) {
                    if (input[0] < 7.011756) {
                        var26 = 0.0411262;
                    } else {
                        var26 = -0.04388206;
                    }
                } else {
                    var26 = 0.044553842;
                }
            }
        }
    }
    var var27;
    if (input[4] < 1.0) {
        var27 = -0.041587327;
    } else {
        if (input[10] < 1.0) {
            var27 = 0.045126084;
        } else {
            if (input[3] < 1.0) {
                if (input[0] < 7.0717144) {
                    var27 = 0.04327986;
                } else {
                    if (input[19] < 197.65417) {
                        var27 = -0.0010900605;
                    } else {
                        var27 = -0.041316934;
                    }
                }
            } else {
                if (input[0] < 9.002708) {
                    if (input[0] < 7.011756) {
                        var27 = 0.040227927;
                    } else {
                        var27 = -0.042117305;
                    }
                } else {
                    var27 = 0.043961238;
                }
            }
        }
    }
    var var28;
    if (input[4] < 1.0) {
        var28 = -0.041452415;
    } else {
        if (input[10] < 1.0) {
            var28 = 0.044695072;
        } else {
            if (input[3] < 1.0) {
                if (input[0] < 4.8147388) {
                    var28 = 0.04238781;
                } else {
                    if (input[19] < 218.18147) {
                        var28 = -0.0033624545;
                    } else {
                        var28 = -0.04116626;
                    }
                }
            } else {
                if (input[0] < 9.002708) {
                    if (input[0] < 7.011756) {
                        var28 = 0.03930955;
                    } else {
                        var28 = -0.043507133;
                    }
                } else {
                    var28 = 0.043385673;
                }
            }
        }
    }
    var var29;
    if (input[4] < 1.0) {
        var29 = -0.041332826;
    } else {
        if (input[10] < 1.0) {
            var29 = 0.04429307;
        } else {
            if (input[3] < 1.0) {
                if (input[0] < 7.0717144) {
                    var29 = 0.042054158;
                } else {
                    var29 = -0.04056634;
                }
            } else {
                if (input[0] < 9.002708) {
                    if (input[0] < 7.011756) {
                        var29 = 0.039182246;
                    } else {
                        var29 = -0.041678365;
                    }
                } else {
                    var29 = 0.042981673;
                }
            }
        }
    }
    var var30;
    if (input[4] < 1.0) {
        var30 = -0.041218475;
    } else {
        if (input[10] < 1.0) {
            var30 = 0.04392769;
        } else {
            if (input[3] < 1.0) {
                if (input[0] < 7.0717144) {
                    var30 = 0.041442007;
                } else {
                    var30 = -0.040375456;
                }
            } else {
                if (input[0] < 9.002708) {
                    if (input[0] < 7.011756) {
                        var30 = 0.038064316;
                    } else {
                        var30 = -0.04159815;
                    }
                } else {
                    var30 = 0.042388823;
                }
            }
        }
    }
    var var31;
    if (input[4] < 1.0) {
        var31 = -0.041112363;
    } else {
        if (input[10] < 1.0) {
            var31 = 0.043593366;
        } else {
            if (input[3] < 1.0) {
                if (input[8] < 17.0) {
                    if (input[8] < 2.0364254) {
                        var31 = 0.0064847153;
                    } else {
                        if (input[2] < 0.5556044) {
                            var31 = -0.008891174;
                        } else {
                            var31 = -0.038642883;
                        }
                    }
                } else {
                    if (input[11] < 22.794205) {
                        var31 = 0.039042845;
                    } else {
                        var31 = -0.021431386;
                    }
                }
            } else {
                if (input[20] < 192.11096) {
                    var31 = 0.037814733;
                } else {
                    if (input[6] < 0.0028783868) {
                        if (input[20] < 265.59924) {
                            if (input[5] < 30.90133) {
                                var31 = 0.0049603605;
                            } else {
                                var31 = -0.019911459;
                            }
                        } else {
                            var31 = 0.022698505;
                        }
                    } else {
                        var31 = 0.03442149;
                    }
                }
            }
        }
    }
    var var32;
    if (input[4] < 1.0) {
        var32 = -0.041020043;
    } else {
        if (input[10] < 1.0) {
            var32 = 0.0432856;
        } else {
            if (input[3] < 1.0) {
                if (input[19] < 237.11394) {
                    if (input[2] < 4.003796) {
                        var32 = 0.02655221;
                    } else {
                        var32 = -0.015317219;
                    }
                } else {
                    if (input[17] < 269.0166) {
                        if (input[5] < 19.029755) {
                            var32 = 0.032019198;
                        } else {
                            var32 = -0.03172402;
                        }
                    } else {
                        var32 = -0.037984587;
                    }
                }
            } else {
                if (input[21] < 118.91969) {
                    var32 = 0.03629644;
                } else {
                    if (input[20] < 178.04974) {
                        var32 = 0.03611887;
                    } else {
                        if (input[5] < 36.605995) {
                            var32 = -0.022236792;
                        } else {
                            var32 = 0.0026238218;
                        }
                    }
                }
            }
        }
    }
    var var33;
    if (input[4] < 1.0) {
        var33 = -0.04092564;
    } else {
        if (input[10] < 1.0) {
            var33 = 0.04300736;
        } else {
            if (input[3] < 1.0) {
                if (input[19] < 237.11394) {
                    if (input[2] < 5.436964) {
                        var33 = 0.017451767;
                    } else {
                        var33 = -0.012769567;
                    }
                } else {
                    if (input[2] < 0.38718328) {
                        var33 = 0.0048738206;
                    } else {
                        if (input[8] < 2.0588906) {
                            var33 = 0.0;
                        } else {
                            if (input[21] < 73.72601) {
                                var33 = -0.016818324;
                            } else {
                                var33 = -0.038487215;
                            }
                        }
                    }
                }
            } else {
                if (input[21] < 118.91969) {
                    if (input[9] < 0.014406825) {
                        var33 = 0.010080048;
                    } else {
                        var33 = 0.04068779;
                    }
                } else {
                    if (input[20] < 178.04974) {
                        var33 = 0.034681797;
                    } else {
                        var33 = -0.011203567;
                    }
                }
            }
        }
    }
    var var34;
    if (input[4] < 1.0) {
        var34 = -0.040834107;
    } else {
        if (input[10] < 1.0) {
            var34 = 0.04275042;
        } else {
            if (input[3] < 1.0) {
                if (input[0] < 4.8147388) {
                    var34 = 0.039232496;
                } else {
                    if (input[23] < 1.489575) {
                        var34 = -0.04041944;
                    } else {
                        var34 = -0.0016131869;
                    }
                }
            } else {
                if (input[0] < 9.002708) {
                    if (input[0] < 7.011756) {
                        var34 = 0.036145765;
                    } else {
                        var34 = -0.03860179;
                    }
                } else {
                    var34 = 0.040774915;
                }
            }
        }
    }
    var var35;
    if (input[4] < 1.0) {
        var35 = -0.040756427;
    } else {
        if (input[3] < 1.0) {
            if (input[0] < 7.9004245) {
                var35 = 0.040976;
            } else {
                if (input[6] < 0.0028783868) {
                    if (input[21] < 70.47614) {
                        var35 = -0.002129761;
                    } else {
                        if (input[20] < 219.0) {
                            var35 = -0.037820533;
                        } else {
                            if (input[8] < 10.0) {
                                var35 = -0.0300296;
                            } else {
                                var35 = -0.0062002926;
                            }
                        }
                    }
                } else {
                    var35 = 0.040108822;
                }
            }
        } else {
            var35 = 0.041254643;
        }
    }
    var var36;
    if (input[15] < 3124.0) {
        if (input[16] < 46.858303) {
            var36 = 0.0039099935;
        } else {
            var36 = -0.040415034;
        }
    } else {
        if (input[10] < 1.0) {
            var36 = 0.042291384;
        } else {
            if (input[0] < 10.0352) {
                if (input[0] < 7.0717144) {
                    var36 = 0.04037383;
                } else {
                    if (input[23] < 1.489575) {
                        var36 = -0.040721066;
                    } else {
                        var36 = -0.0017593718;
                    }
                }
            } else {
                var36 = 0.039907616;
            }
        }
    }
    var var37;
    if (input[4] < 1.0) {
        var37 = -0.040604714;
    } else {
        if (input[3] < 1.0) {
            if (input[0] < 7.9004245) {
                var37 = 0.040391646;
            } else {
                if (input[6] < 0.0028783868) {
                    if (input[20] < 80.10222) {
                        var37 = 0.00083977735;
                    } else {
                        if (input[21] < 71.742775) {
                            var37 = -0.0061324737;
                        } else {
                            if (input[21] < 201.93913) {
                                var37 = -0.036031734;
                            } else {
                                var37 = -0.007517907;
                            }
                        }
                    }
                } else {
                    var37 = 0.038890563;
                }
            }
        } else {
            var37 = 0.04069373;
        }
    }
    var var38;
    if (input[4] < 1.0) {
        var38 = -0.040535323;
    } else {
        if (input[10] < 1.0) {
            var38 = 0.041913245;
        } else {
            if (input[6] < 0.0028783868) {
                if (input[20] < 74.38115) {
                    var38 = 0.025030147;
                } else {
                    if (input[20] < 245.0) {
                        if (input[21] < 70.47614) {
                            var38 = 0.000099315075;
                        } else {
                            if (input[5] < 44.0) {
                                var38 = -0.032917995;
                            } else {
                                var38 = -0.0043243445;
                            }
                        }
                    } else {
                        if (input[2] < 4.788833) {
                            var38 = 0.026125848;
                        } else {
                            if (input[5] < 42.26646) {
                                var38 = -0.025417872;
                            } else {
                                var38 = -0.0018593218;
                            }
                        }
                    }
                }
            } else {
                var38 = 0.040365625;
            }
        }
    }
    var var39;
    if (input[4] < 1.0) {
        var39 = -0.040468745;
    } else {
        if (input[10] < 1.0) {
            var39 = 0.04174185;
        } else {
            if (input[3] < 1.0) {
                if (input[19] < 237.11394) {
                    var39 = 0.00092160463;
                } else {
                    if (input[17] < 269.0166) {
                        var39 = -0.0070016943;
                    } else {
                        if (input[21] < 73.72601) {
                            var39 = -0.011819116;
                        } else {
                            var39 = -0.037684824;
                        }
                    }
                }
            } else {
                if (input[19] < 1738.993) {
                    if (input[19] < 1333.0178) {
                        var39 = 0.030263646;
                    } else {
                        var39 = -0.034235958;
                    }
                } else {
                    var39 = 0.03585251;
                }
            }
        }
    }
    var var40;
    if (input[4] < 1.0) {
        var40 = -0.040405408;
    } else {
        if (input[10] < 1.0) {
            var40 = 0.04157916;
        } else {
            if (input[0] < 10.0352) {
                if (input[0] < 7.0717144) {
                    var40 = 0.03893279;
                } else {
                    var40 = -0.039615538;
                }
            } else {
                var40 = 0.038518827;
            }
        }
    }
    var var41;
    if (input[4] < 1.0) {
        var41 = -0.040348016;
    } else {
        if (input[10] < 1.0) {
            var41 = 0.041425753;
        } else {
            if (input[0] < 10.0352) {
                if (input[0] < 7.0717144) {
                    var41 = 0.03824234;
                } else {
                    if (input[23] < 1.2736903) {
                        var41 = -0.040362753;
                    } else {
                        var41 = -0.0017557362;
                    }
                }
            } else {
                var41 = 0.038519517;
            }
        }
    }
    var var42;
    if (input[4] < 1.0) {
        var42 = -0.040295966;
    } else {
        if (input[10] < 1.0) {
            var42 = 0.041273303;
        } else {
            if (input[0] < 10.0352) {
                if (input[0] < 7.0717144) {
                    var42 = 0.03804607;
                } else {
                    if (input[23] < 1.2736903) {
                        var42 = -0.04019685;
                    } else {
                        var42 = -0.0019949118;
                    }
                }
            } else {
                var42 = 0.03816132;
            }
        }
    }
    var var43;
    if (input[4] < 1.0) {
        var43 = -0.040231686;
    } else {
        if (input[10] < 1.0) {
            var43 = 0.041142073;
        } else {
            if (input[3] < 1.0) {
                if (input[19] < 237.11394) {
                    var43 = 0.011301901;
                } else {
                    if (input[20] < 228.0) {
                        if (input[5] < 41.41336) {
                            var43 = -0.037300754;
                        } else {
                            var43 = -0.011777222;
                        }
                    } else {
                        var43 = -0.007480433;
                    }
                }
            } else {
                if (input[21] < 118.91969) {
                    var43 = 0.028788187;
                } else {
                    if (input[20] < 201.74219) {
                        var43 = 0.023518845;
                    } else {
                        var43 = -0.014180731;
                    }
                }
            }
        }
    }
    var var44;
    if (input[4] < 1.0) {
        var44 = -0.04017442;
    } else {
        if (input[10] < 1.0) {
            var44 = 0.04102246;
        } else {
            if (input[0] < 10.0352) {
                if (input[0] < 7.0717144) {
                    var44 = 0.037178006;
                } else {
                    if (input[19] < 274.51892) {
                        var44 = -0.0029554542;
                    } else {
                        var44 = -0.04005515;
                    }
                }
            } else {
                var44 = 0.03736402;
            }
        }
    }
    var var45;
    if (input[4] < 1.0) {
        var45 = -0.040123433;
    } else {
        if (input[10] < 1.0) {
            var45 = 0.040906575;
        } else {
            if (input[0] < 10.0352) {
                if (input[0] < 7.0717144) {
                    var45 = 0.036604274;
                } else {
                    if (input[23] < 1.0600682) {
                        var45 = -0.039899383;
                    } else {
                        var45 = -0.0027800973;
                    }
                }
            } else {
                var45 = 0.036948692;
            }
        }
    }
    var var46;
    if (input[4] < 1.0) {
        var46 = -0.040065967;
    } else {
        if (input[3] < 1.0) {
            if (input[20] < 245.0) {
                if (input[5] < 44.0) {
                    if (input[21] < 70.47614) {
                        var46 = 0.0067670858;
                    } else {
                        if (input[20] < 90.771965) {
                            var46 = 0.0041600033;
                        } else {
                            if (input[20] < 212.0) {
                                var46 = -0.03153353;
                            } else {
                                var46 = -0.007953283;
                            }
                        }
                    }
                } else {
                    var46 = 0.017848505;
                }
            } else {
                if (input[5] < 19.029755) {
                    var46 = 0.02603955;
                } else {
                    var46 = -0.0017606459;
                }
            }
        } else {
            var46 = 0.038857605;
        }
    }
    var var47;
    if (input[4] < 1.0) {
        var47 = -0.04000855;
    } else {
        if (input[10] < 1.0) {
            var47 = 0.040688682;
        } else {
            if (input[0] < 10.0352) {
                if (input[0] < 7.0717144) {
                    var47 = 0.036466513;
                } else {
                    if (input[8] < 17.0) {
                        var47 = -0.039733037;
                    } else {
                        var47 = -0.006240012;
                    }
                }
            } else {
                var47 = 0.036224995;
            }
        }
    }
    var var48;
    if (input[4] < 1.0) {
        var48 = -0.03996007;
    } else {
        if (input[10] < 1.0) {
            var48 = 0.04059311;
        } else {
            if (input[0] < 10.0352) {
                if (input[0] < 7.0717144) {
                    var48 = 0.035576455;
                } else {
                    if (input[8] < 16.743353) {
                        var48 = -0.03964693;
                    } else {
                        var48 = -0.0046902206;
                    }
                }
            } else {
                var48 = 0.03533071;
            }
        }
    }
    var var49;
    if (input[16] < 126.75488) {
        var49 = -0.03886107;
    } else {
        if (input[10] < 1.0) {
            if (input[16] < 126.900024) {
                var49 = 0.040489398;
            } else {
                var49 = -0.035323072;
            }
        } else {
            if (input[0] < 13.0) {
                if (input[0] < 7.0717144) {
                    if (input[16] < 126.900024) {
                        var49 = 0.035123575;
                    } else {
                        var49 = -0.03266815;
                    }
                } else {
                    var49 = -0.038028333;
                }
            } else {
                var49 = 0.02056642;
            }
        }
    }
    var var50;
    if (input[4] < 1.0) {
        var50 = -0.039850105;
    } else {
        if (input[10] < 1.0) {
            var50 = 0.040398087;
        } else {
            if (input[0] < 10.0352) {
                if (input[0] < 7.0717144) {
                    var50 = 0.034525383;
                } else {
                    if (input[8] < 16.41209) {
                        var50 = -0.039360173;
                    } else {
                        var50 = -0.005291774;
                    }
                }
            } else {
                var50 = 0.035082392;
            }
        }
    }
    var var51;
    if (input[4] < 1.0) {
        var51 = -0.03980455;
    } else {
        if (input[10] < 0.99506) {
            var51 = 0.040299706;
        } else {
            if (input[0] < 10.0352) {
                if (input[0] < 7.0717144) {
                    var51 = 0.03427873;
                } else {
                    if (input[8] < 16.41209) {
                        var51 = -0.038880818;
                    } else {
                        var51 = -0.005169199;
                    }
                }
            } else {
                var51 = 0.034350764;
            }
        }
    }
    var var52;
    if (input[4] < 1.0) {
        var52 = -0.039729398;
    } else {
        if (input[10] < 1.0) {
            var52 = 0.040213656;
        } else {
            if (input[0] < 10.0352) {
                if (input[0] < 7.011756) {
                    var52 = 0.03337127;
                } else {
                    if (input[5] < 43.675896) {
                        var52 = -0.039057005;
                    } else {
                        var52 = -0.0054893387;
                    }
                }
            } else {
                var52 = 0.034217525;
            }
        }
    }
    var var53;
    if (input[15] < 3124.0) {
        var53 = -0.038680498;
    } else {
        if (input[3] < 1.0) {
            if (input[0] < 7.9004245) {
                var53 = 0.03397779;
            } else {
                if (input[20] < 99.7165) {
                    var53 = 0.0011338477;
                } else {
                    if (input[21] < 78.643105) {
                        var53 = -0.007707321;
                    } else {
                        var53 = -0.031157283;
                    }
                }
            }
        } else {
            var53 = 0.037483655;
        }
    }
    var var54;
    if (input[15] < 3124.0) {
        var54 = -0.038601458;
    } else {
        if (input[10] < 1.0) {
            var54 = 0.04003627;
        } else {
            if (input[0] < 10.0352) {
                if (input[0] < 7.011756) {
                    var54 = 0.032327913;
                } else {
                    var54 = -0.038988642;
                }
            } else {
                var54 = 0.032881346;
            }
        }
    }
    var var55;
    if (input[15] < 3124.0) {
        var55 = -0.038605228;
    } else {
        if (input[10] < 1.0) {
            var55 = 0.039960347;
        } else {
            if (input[0] < 7.0717144) {
                var55 = 0.032586597;
            } else {
                if (input[0] < 10.0352) {
                    if (input[2] < 1.3740602) {
                        var55 = -0.0053463774;
                    } else {
                        var55 = -0.038767077;
                    }
                } else {
                    var55 = 0.03211123;
                }
            }
        }
    }
    var var56;
    if (input[4] < 1.0) {
        var56 = -0.039511662;
    } else {
        if (input[10] < 1.0) {
            var56 = 0.039874457;
        } else {
            if (input[0] < 10.0352) {
                if (input[0] < 7.0717144) {
                    var56 = 0.03106759;
                } else {
                    var56 = -0.03663172;
                }
            } else {
                var56 = 0.032260943;
            }
        }
    }
    var var57;
    if (input[4] < 1.0) {
        var57 = -0.039438374;
    } else {
        if (input[3] < 1.0) {
            if (input[19] < 237.11394) {
                var57 = 0.016010987;
            } else {
                if (input[17] < 358.16486) {
                    var57 = 0.003188088;
                } else {
                    var57 = -0.020480812;
                }
            }
        } else {
            var57 = 0.036717918;
        }
    }
    var var58;
    if (input[4] < 1.0) {
        var58 = -0.039363008;
    } else {
        if (input[10] < 1.0) {
            var58 = 0.039717574;
        } else {
            if (input[0] < 10.0352) {
                if (input[0] < 7.0717144) {
                    var58 = 0.030731803;
                } else {
                    if (input[20] < 101.38873) {
                        var58 = -0.0052841096;
                    } else {
                        var58 = -0.03783766;
                    }
                }
            } else {
                var58 = 0.031431288;
            }
        }
    }
    var var59;
    if (input[4] < 1.0) {
        var59 = -0.039308313;
    } else {
        if (input[10] < 1.0) {
            var59 = 0.03963216;
        } else {
            if (input[0] < 10.0352) {
                if (input[0] < 7.0717144) {
                    var59 = 0.03021586;
                } else {
                    if (input[19] < 1113.8086) {
                        var59 = -0.0054779737;
                    } else {
                        var59 = -0.038081568;
                    }
                }
            } else {
                var59 = 0.03053824;
            }
        }
    }
    var var60;
    if (input[4] < 1.0) {
        var60 = -0.03922027;
    } else {
        if (input[0] < 10.0352) {
            if (input[0] < 8.0) {
                var60 = 0.038072627;
            } else {
                if (input[0] < 8.140416) {
                    var60 = -0.001327585;
                } else {
                    var60 = -0.02629361;
                }
            }
        } else {
            var60 = 0.039139606;
        }
    }
    var var61;
    if (input[4] < 1.0) {
        var61 = -0.03914139;
    } else {
        if (input[10] < 0.995368) {
            var61 = 0.03945514;
        } else {
            if (input[0] < 10.0352) {
                if (input[0] < 7.0717144) {
                    var61 = 0.028917372;
                } else {
                    if (input[2] < 2.888271) {
                        var61 = -0.0062160185;
                    } else {
                        var61 = -0.037404347;
                    }
                }
            } else {
                var61 = 0.030028088;
            }
        }
    }
    var var62;
    if (input[15] < 3124.0) {
        var62 = -0.03786933;
    } else {
        if (input[10] < 1.0) {
            var62 = 0.039351497;
        } else {
            if (input[0] < 10.0352) {
                if (input[0] < 8.420167) {
                    if (input[9] < 1.969309) {
                        var62 = -0.017492006;
                    } else {
                        var62 = 0.029648632;
                    }
                } else {
                    var62 = -0.036825106;
                }
            } else {
                var62 = 0.028515007;
            }
        }
    }
    var var63;
    if (input[4] < 1.0) {
        var63 = -0.03898108;
    } else {
        if (input[10] < 1.0) {
            var63 = 0.03929052;
        } else {
            if (input[3] < 0.40750653) {
                if (input[0] < 8.200514) {
                    var63 = 0.0023575963;
                } else {
                    var63 = -0.035233643;
                }
            } else {
                if (input[0] < 9.470503) {
                    var63 = -0.008649782;
                } else {
                    var63 = 0.026404697;
                }
            }
        }
    }
    var var64;
    if (input[4] < 1.0) {
        var64 = -0.0388894;
    } else {
        if (input[10] < 1.0) {
            var64 = 0.03919542;
        } else {
            if (input[3] < 0.40750653) {
                if (input[0] < 8.0766115) {
                    var64 = 0.0055061057;
                } else {
                    var64 = -0.035028934;
                }
            } else {
                if (input[0] < 9.221463) {
                    var64 = -0.008955563;
                } else {
                    var64 = 0.022308249;
                }
            }
        }
    }
    var var65;
    if (input[4] < 1.0) {
        var65 = -0.0387943;
    } else {
        if (input[10] < 1.0) {
            var65 = 0.03910412;
        } else {
            if (input[3] < 1.0) {
                var65 = -0.025713354;
            } else {
                var65 = 0.0089928415;
            }
        }
    }
    var var66;
    if (input[4] < 1.0) {
        var66 = -0.03868673;
    } else {
        if (input[10] < 1.0) {
            var66 = 0.03898238;
        } else {
            if (input[5] < 42.0) {
                if (input[0] < 8.03184) {
                    var66 = 0.0018938769;
                } else {
                    if (input[0] < 10.0) {
                        var66 = -0.035006337;
                    } else {
                        var66 = -0.0030240885;
                    }
                }
            } else {
                var66 = 0.012862636;
            }
        }
    }
    var var67;
    if (input[4] < 1.0) {
        var67 = -0.03856834;
    } else {
        if (input[10] < 1.0) {
            var67 = 0.03887925;
        } else {
            if (input[3] < 1.0) {
                if (input[0] < 8.200514) {
                    var67 = 0.0;
                } else {
                    var67 = -0.034732457;
                }
            } else {
                var67 = 0.005053498;
            }
        }
    }
    var var68;
    if (input[4] < 1.0) {
        var68 = -0.038472448;
    } else {
        if (input[10] < 1.0) {
            var68 = 0.0387774;
        } else {
            if (input[3] < 0.40750653) {
                if (input[0] < 8.344337) {
                    var68 = 0.0;
                } else {
                    var68 = -0.033458553;
                }
            } else {
                if (input[8] < 10.016144) {
                    var68 = -0.0029079118;
                } else {
                    var68 = 0.015458351;
                }
            }
        }
    }
    var var69;
    if (input[15] < 3124.0) {
        var69 = -0.036787536;
    } else {
        if (input[10] < 0.995368) {
            var69 = 0.038615134;
        } else {
            if (input[0] < 8.140416) {
                var69 = 0.0055082063;
            } else {
                if (input[0] < 10.0) {
                    var69 = -0.034053273;
                } else {
                    var69 = -0.0001068604;
                }
            }
        }
    }
    var var70;
    if (input[15] < 3124.0) {
        var70 = -0.036926962;
    } else {
        if (input[10] < 1.0) {
            var70 = 0.03845825;
        } else {
            if (input[5] < 42.0) {
                if (input[0] < 8.009704) {
                    var70 = 0.0032982319;
                } else {
                    if (input[3] < 1.0) {
                        var70 = -0.033664152;
                    } else {
                        var70 = 0.0;
                    }
                }
            } else {
                var70 = 0.0123799415;
            }
        }
    }
    var var71;
    if (input[4] < 1.0) {
        var71 = -0.03810244;
    } else {
        if (input[10] < 1.0) {
            var71 = 0.038379606;
        } else {
            if (input[19] < 1333.0178) {
                var71 = 0.008829983;
            } else {
                if (input[3] < 1.0) {
                    var71 = -0.02475965;
                } else {
                    var71 = 0.0;
                }
            }
        }
    }
    var var72;
    if (input[4] < 1.0) {
        var72 = -0.037946265;
    } else {
        if (input[10] < 1.0) {
            var72 = 0.038259603;
        } else {
            if (input[2] < 3.0002036) {
                var72 = 0.00958604;
            } else {
                if (input[3] < 1.0) {
                    var72 = -0.026571373;
                } else {
                    var72 = 0.0;
                }
            }
        }
    }
    var var73;
    if (input[15] < 3124.0) {
        var73 = -0.0362022;
    } else {
        if (input[10] < 1.0) {
            var73 = 0.038038302;
        } else {
            if (input[19] < 1333.0178) {
                var73 = 0.009156612;
            } else {
                if (input[3] < 1.0) {
                    var73 = -0.024722213;
                } else {
                    var73 = -0.0029391977;
                }
            }
        }
    }
    var var74;
    if (input[4] < 1.0) {
        var74 = -0.037680052;
    } else {
        if (input[10] < 1.0) {
            var74 = 0.037919216;
        } else {
            if (input[2] < 3.0002036) {
                var74 = 0.010542725;
            } else {
                if (input[3] < 1.0) {
                    var74 = -0.025753822;
                } else {
                    var74 = -0.0007695361;
                }
            }
        }
    }
    var var75;
    if (input[4] < 1.0) {
        var75 = -0.03751414;
    } else {
        if (input[10] < 1.0) {
            var75 = 0.037764214;
        } else {
            if (input[2] < 3.0002036) {
                var75 = 0.00960902;
            } else {
                if (input[3] < 1.0) {
                    var75 = -0.024870014;
                } else {
                    var75 = 0.0;
                }
            }
        }
    }
    var var76;
    if (input[4] < 1.0) {
        var76 = -0.037353218;
    } else {
        if (input[3] < 1.0) {
            if (input[0] < 8.420167) {
                var76 = 0.014046826;
            } else {
                var76 = -0.018320324;
            }
        } else {
            var76 = 0.030667279;
        }
    }
    var var77;
    if (input[4] < 1.0) {
        var77 = -0.037160866;
    } else {
        if (input[10] < 1.0) {
            var77 = 0.0374537;
        } else {
            if (input[20] < 124.06227) {
                var77 = 0.0058964053;
            } else {
                var77 = -0.01734827;
            }
        }
    }
    var var78;
    if (input[4] < 1.0) {
        var78 = -0.03696991;
    } else {
        if (input[10] < 1.0) {
            var78 = 0.037259698;
        } else {
            if (input[20] < 124.06227) {
                var78 = 0.006767685;
            } else {
                var78 = -0.016742107;
            }
        }
    }
    var var79;
    if (input[4] < 1.0) {
        var79 = -0.036738146;
    } else {
        if (input[3] < 1.0) {
            if (input[0] < 8.420167) {
                var79 = 0.013545471;
            } else {
                var79 = -0.018344043;
            }
        } else {
            var79 = 0.029397007;
        }
    }
    var var80;
    if (input[4] < 1.0) {
        var80 = -0.03649644;
    } else {
        if (input[10] < 1.0) {
            var80 = 0.036906257;
        } else {
            if (input[20] < 124.06227) {
                var80 = 0.0066621923;
            } else {
                var80 = -0.016515939;
            }
        }
    }
    var var81;
    if (input[4] < 1.0) {
        var81 = -0.036272865;
    } else {
        if (input[10] < 1.0) {
            var81 = 0.036681596;
        } else {
            if (input[0] < 8.140416) {
                var81 = 0.0042997827;
            } else {
                if (input[0] < 9.944475) {
                    var81 = -0.030665928;
                } else {
                    var81 = 0.0;
                }
            }
        }
    }
    var var82;
    if (input[10] < 1.0) {
        if (input[20] < 245.0) {
            var82 = 0.02319767;
        } else {
            var82 = 0.0;
        }
    } else {
        if (input[0] < 6.030088) {
            var82 = 0.0;
        } else {
            if (input[0] < 13.0) {
                var82 = -0.035011336;
            } else {
                var82 = -0.0030677195;
            }
        }
    }
    var var83;
    if (input[4] < 1.0) {
        var83 = -0.03591844;
    } else {
        if (input[10] < 1.0) {
            var83 = 0.036200438;
        } else {
            if (input[0] < 8.420167) {
                var83 = 0.004948356;
            } else {
                var83 = -0.015419064;
            }
        }
    }
    var var84;
    if (input[4] < 1.0) {
        var84 = -0.03565559;
    } else {
        if (input[10] < 0.995368) {
            var84 = 0.036042746;
        } else {
            if (input[20] < 124.06227) {
                var84 = 0.007996541;
            } else {
                var84 = -0.015259162;
            }
        }
    }
    var var85;
    if (input[4] < 1.0) {
        var85 = -0.035388835;
    } else {
        if (input[10] < 1.0) {
            var85 = 0.03574755;
        } else {
            if (input[8] < 11.0) {
                var85 = -0.013568829;
            } else {
                var85 = 0.0059437985;
            }
        }
    }
    var var86;
    if (input[4] < 1.0) {
        var86 = -0.035096727;
    } else {
        if (input[10] < 1.0) {
            var86 = 0.035556648;
        } else {
            if (input[8] < 11.0) {
                var86 = -0.0138213765;
            } else {
                var86 = 0.0052630706;
            }
        }
    }
    var var87;
    if (input[15] < 3124.0) {
        var87 = -0.032692302;
    } else {
        if (input[10] < 1.0) {
            var87 = 0.03520916;
        } else {
            if (input[0] < 8.420167) {
                var87 = 0.0016625089;
            } else {
                var87 = -0.014326454;
            }
        }
    }
    var var88;
    if (input[4] < 1.0) {
        var88 = -0.034540746;
    } else {
        if (input[10] < 1.0) {
            var88 = 0.0350771;
        } else {
            if (input[0] < 8.420167) {
                var88 = 0.008110876;
            } else {
                var88 = -0.013918913;
            }
        }
    }
    var var89;
    if (input[4] < 1.0) {
        var89 = -0.034287512;
    } else {
        if (input[10] < 1.0) {
            var89 = 0.034861863;
        } else {
            if (input[0] < 8.420167) {
                var89 = 0.0066787056;
            } else {
                var89 = -0.012870577;
            }
        }
    }
    var var90;
    if (input[4] < 1.0) {
        var90 = -0.033942256;
    } else {
        if (input[10] < 1.0) {
            var90 = 0.03450241;
        } else {
            if (input[8] < 11.0) {
                var90 = -0.011560609;
            } else {
                var90 = 0.006800886;
            }
        }
    }
    var var91;
    if (input[4] < 1.0) {
        var91 = -0.033725996;
    } else {
        if (input[10] < 1.0) {
            var91 = 0.03432717;
        } else {
            var91 = -0.0069518844;
        }
    }
    var var92;
    if (input[4] < 1.0) {
        var92 = -0.033369344;
    } else {
        if (input[10] < 1.0) {
            var92 = 0.0340394;
        } else {
            if (input[0] < 8.420167) {
                var92 = 0.0050256294;
            } else {
                var92 = -0.012540668;
            }
        }
    }
    var var93;
    if (input[4] < 1.0) {
        var93 = -0.033115946;
    } else {
        if (input[10] < 1.0) {
            var93 = 0.03382929;
        } else {
            var93 = -0.005930282;
        }
    }
    var var94;
    if (input[4] < 1.0) {
        var94 = -0.03276457;
    } else {
        if (input[10] < 1.0) {
            var94 = 0.033623125;
        } else {
            if (input[3] < 0.40750653) {
                var94 = -0.012927184;
            } else {
                var94 = 0.005063849;
            }
        }
    }
    var var95;
    if (input[4] < 1.0) {
        var95 = -0.032488335;
    } else {
        if (input[10] < 1.0) {
            var95 = 0.033392616;
        } else {
            if (input[0] < 8.420167) {
                var95 = 0.0064569283;
            } else {
                var95 = -0.011662245;
            }
        }
    }
    var var96;
    if (input[4] < 1.0) {
        var96 = -0.032156978;
    } else {
        if (input[10] < 0.995368) {
            var96 = 0.033049207;
        } else {
            var96 = -0.003560964;
        }
    }
    var var97;
    if (input[4] < 1.0) {
        var97 = -0.03182469;
    } else {
        if (input[10] < 1.0) {
            var97 = 0.032733556;
        } else {
            var97 = -0.0010862574;
        }
    }
    var var98;
    if (input[4] < 1.0) {
        var98 = -0.031463195;
    } else {
        if (input[10] < 1.0) {
            var98 = 0.0323928;
        } else {
            var98 = -0.0030173797;
        }
    }
    var var99;
    if (input[4] < 1.0) {
        var99 = -0.031110916;
    } else {
        if (input[10] < 1.0) {
            var99 = 0.03221848;
        } else {
            var99 = -0.0024890674;
        }
    }
    var var100;
    if (input[4] < 1.0) {
        var100 = -0.030718202;
    } else {
        if (input[10] < 1.0) {
            var100 = 0.03193409;
        } else {
            var100 = -0.0023986686;
        }
    }
    var var101;
    if (input[4] < 1.0) {
        var101 = -0.03029584;
    } else {
        if (input[10] < 1.0) {
            var101 = 0.031479314;
        } else {
            var101 = -0.0026424164;
        }
    }
    var var102;
    if (input[4] < 1.0) {
        var102 = -0.030119106;
    } else {
        if (input[10] < 1.0) {
            var102 = 0.031315476;
        } else {
            var102 = -0.0021605485;
        }
    }
    var var103;
    if (input[4] < 1.0) {
        var103 = -0.029603414;
    } else {
        if (input[10] < 1.0) {
            var103 = 0.030930609;
        } else {
            var103 = -0.002080297;
        }
    }
    var var104;
    if (input[4] < 1.0) {
        var104 = -0.029454539;
    } else {
        if (input[10] < 1.0) {
            var104 = 0.030502226;
        } else {
            var104 = -0.0019730467;
        }
    }
    var var105;
    if (input[4] < 1.0) {
        var105 = -0.029074682;
    } else {
        if (input[10] < 0.995368) {
            var105 = 0.03047052;
        } else {
            var105 = -0.0041262186;
        }
    }
    var var106;
    if (input[10] < 0.995368) {
        var106 = 0.017333986;
    } else {
        var106 = -0.0116679305;
    }
    var var107;
    if (input[4] < 1.0) {
        var107 = -0.02844886;
    } else {
        if (input[3] < 0.40750653) {
            var107 = -0.002995769;
        } else {
            var107 = 0.018763486;
        }
    }
    var var108;
    if (input[4] < 1.0) {
        var108 = -0.028190596;
    } else {
        if (input[10] < 1.0) {
            var108 = 0.029496128;
        } else {
            var108 = -0.00087699224;
        }
    }
    var var109;
    if (input[15] < 3124.0) {
        var109 = -0.024751324;
    } else {
        if (input[10] < 1.0) {
            var109 = 0.029011004;
        } else {
            var109 = -0.0026752162;
        }
    }
    var var110;
    if (input[15] < 3124.0) {
        var110 = -0.024197675;
    } else {
        if (input[10] < 0.995368) {
            var110 = 0.028772313;
        } else {
            var110 = -0.0046874797;
        }
    }
    var var111;
    if (input[20] < 124.06227) {
        var111 = 0.012694318;
    } else {
        var111 = -0.0051397923;
    }
    var var112;
    if (input[20] < 124.06227) {
        var112 = 0.012689498;
    } else {
        var112 = -0.0050482554;
    }
    var var113;
    if (input[10] < 1.0) {
        var113 = 0.017656952;
    } else {
        var113 = -0.011049262;
    }
    var var114;
    if (input[10] < 1.0) {
        var114 = 0.017028267;
    } else {
        var114 = -0.00794605;
    }
    var var115;
    if (input[10] < 1.0) {
        var115 = 0.01726163;
    } else {
        var115 = -0.009164161;
    }
    var var116;
    if (input[6] < 1.7894951) {
        if (input[0] < 8.001255) {
            var116 = 0.004924361;
        } else {
            var116 = -0.011874801;
        }
    } else {
        var116 = 0.011665387;
    }
    var var117;
    if (input[10] < 1.0) {
        var117 = 0.01608946;
    } else {
        var117 = -0.007492049;
    }
    var var118;
    if (input[10] < 1.0) {
        var118 = 0.015901309;
    } else {
        var118 = -0.011528315;
    }
    var var119;
    if (input[10] < 1.0) {
        var119 = 0.015369907;
    } else {
        var119 = -0.010770536;
    }
    var var120;
    if (input[10] < 0.995368) {
        var120 = 0.015352552;
    } else {
        if (input[0] < 8.420167) {
            var120 = 0.0002684492;
        } else {
            var120 = -0.015532245;
        }
    }
    var var121;
    if (input[10] < 1.0) {
        var121 = 0.014852332;
    } else {
        var121 = -0.0070477817;
    }
    var var122;
    if (input[10] < 1.0) {
        var122 = 0.014125305;
    } else {
        var122 = -0.009558522;
    }
    var var123;
    if (input[20] < 124.06227) {
        var123 = 0.012225718;
    } else {
        var123 = -0.005429879;
    }
    var var124;
    if (input[10] < 1.0) {
        var124 = 0.014107271;
    } else {
        var124 = -0.009873754;
    }
    var var125;
    if (input[10] < 1.0) {
        var125 = 0.012938593;
    } else {
        var125 = -0.00788705;
    }
    var var126;
    if (input[10] < 1.0) {
        var126 = 0.013252217;
    } else {
        var126 = -0.008109688;
    }
    var var127;
    if (input[10] < 0.995368) {
        var127 = 0.012771021;
    } else {
        var127 = -0.008535135;
    }
    var var128;
    if (input[20] < 124.06227) {
        var128 = 0.012215746;
    } else {
        var128 = -0.004798741;
    }
    var var129;
    if (input[10] < 0.995368) {
        var129 = 0.011971266;
    } else {
        var129 = -0.008317227;
    }
    var var130;
    if (input[10] < 1.0) {
        var130 = 0.011870982;
    } else {
        var130 = -0.0052236943;
    }
    var var131;
    if (input[10] < 1.0) {
        var131 = 0.011842269;
    } else {
        var131 = -0.00619918;
    }
    var var132;
    if (input[20] < 124.06227) {
        var132 = 0.012134637;
    } else {
        var132 = -0.0053999857;
    }
    var var133;
    if (input[20] < 124.06227) {
        var133 = 0.0117704505;
    } else {
        var133 = -0.0042995084;
    }
    var var134;
    if (input[5] < 36.960064) {
        var134 = -0.0029832744;
    } else {
        var134 = 0.012164262;
    }
    var var135;
    if (input[10] < 1.0) {
        var135 = 0.011111763;
    } else {
        var135 = -0.006959452;
    }
    var var136;
    if (input[10] < 0.995368) {
        var136 = 0.011125571;
    } else {
        var136 = -0.0039395443;
    }
    var var137;
    if (input[20] < 124.06227) {
        var137 = 0.011338701;
    } else {
        var137 = -0.0044105523;
    }
    var var138;
    if (input[10] < 1.0) {
        var138 = 0.011141447;
    } else {
        var138 = -0.004346211;
    }
    var var139;
    if (input[20] < 124.06227) {
        var139 = 0.011289394;
    } else {
        var139 = -0.0051906127;
    }
    var var140;
    if (input[10] < 1.0) {
        var140 = 0.010853463;
    } else {
        var140 = -0.006144988;
    }
    var var141;
    if (input[10] < 1.0) {
        var141 = 0.009933889;
    } else {
        var141 = -0.009562552;
    }
    var var142;
    if (input[10] < 0.995368) {
        var142 = 0.010538918;
    } else {
        var142 = -0.005538203;
    }
    var var143;
    if (input[10] < 1.0) {
        var143 = 0.009594721;
    } else {
        var143 = -0.0077112583;
    }
    var var144;
    if (input[10] < 1.0) {
        var144 = 0.00941976;
    } else {
        var144 = -0.006530239;
    }
    var var145;
    if (input[20] < 124.06227) {
        var145 = 0.010598971;
    } else {
        var145 = -0.0046630935;
    }
    var var146;
    if (input[10] < 1.0) {
        var146 = 0.00832214;
    } else {
        var146 = -0.007313777;
    }
    var var147;
    if (input[10] < 0.995368) {
        var147 = 0.008833738;
    } else {
        var147 = -0.006667415;
    }
    var var148;
    if (input[20] < 124.06227) {
        var148 = 0.009951789;
    } else {
        var148 = -0.00553552;
    }
    var var149;
    if (input[10] < 0.995368) {
        var149 = 0.008469979;
    } else {
        var149 = -0.007878449;
    }
    var var150;
    if (input[10] < 0.995368) {
        var150 = 0.008227573;
    } else {
        var150 = -0.0074496767;
    }
    var var151;
    if (input[10] < 0.0031257481) {
        if (input[4] < 0.0051396275) {
            var151 = 0.15986067;
        } else {
            var151 = -0.053274937;
        }
    } else {
        var151 = -0.053309534;
    }
    var var152;
    if (input[10] < 0.0031257481) {
        if (input[4] < 0.0051396275) {
            var152 = 0.13687511;
        } else {
            var152 = -0.05230944;
        }
    } else {
        var152 = -0.052330073;
    }
    var var153;
    if (input[10] < 0.0031257481) {
        if (input[4] < 0.0051396275) {
            var153 = 0.12139344;
        } else {
            var153 = -0.051410474;
        }
    } else {
        var153 = -0.05150727;
    }
    var var154;
    if (input[10] < 0.0031257481) {
        if (input[4] < 0.0051396275) {
            var154 = 0.10848915;
        } else {
            var154 = -0.050561745;
        }
    } else {
        var154 = -0.05066049;
    }
    var var155;
    if (input[10] < 0.0031257481) {
        if (input[4] < 0.0051396275) {
            var155 = 0.09841866;
        } else {
            var155 = -0.04976946;
        }
    } else {
        var155 = -0.04986875;
    }
    var var156;
    if (input[10] < 0.0031257481) {
        if (input[16] < 126.17736) {
            if (input[16] < 46.858303) {
                if (input[1] < 4.360899) {
                    var156 = 0.07629548;
                } else {
                    if (input[8] < 6.7744856) {
                        var156 = 0.008962027;
                    } else {
                        var156 = -0.014177409;
                    }
                }
            } else {
                var156 = 0.09014099;
            }
        } else {
            if (input[16] < 126.900024) {
                var156 = -0.049035843;
            } else {
                var156 = 0.09017918;
            }
        }
    } else {
        var156 = -0.049135003;
    }
    var var157;
    if (input[10] < 0.0031257481) {
        if (input[4] < 0.0051396275) {
            var157 = 0.08383295;
        } else {
            var157 = -0.048351582;
        }
    } else {
        var157 = -0.048454512;
    }
    var var158;
    if (input[10] < 0.0031257481) {
        if (input[4] < 0.0051396275) {
            var158 = 0.07840846;
        } else {
            var158 = -0.04771175;
        }
    } else {
        var158 = -0.047819596;
    }
    var var159;
    if (input[10] < 0.0031257481) {
        if (input[4] < 0.0051396275) {
            var159 = 0.07386625;
        } else {
            var159 = -0.047119822;
        }
    } else {
        var159 = -0.047238525;
    }
    var var160;
    if (input[10] < 0.0031257481) {
        if (input[4] < 0.0051396275) {
            var160 = 0.069997355;
        } else {
            var160 = -0.04656905;
        }
    } else {
        var160 = -0.04669198;
    }
    var var161;
    if (input[10] < 0.0031257481) {
        if (input[15] < 747.04297) {
            if (input[15] < 47.971283) {
                if (input[5] < 40.119064) {
                    var161 = -0.015693698;
                } else {
                    var161 = 0.05063994;
                }
            } else {
                var161 = 0.06692809;
            }
        } else {
            var161 = -0.046065863;
        }
    } else {
        var161 = -0.046227217;
    }
    var var162;
    if (input[10] < 0.0031257481) {
        if (input[4] < 0.0051396275) {
            var162 = 0.0641575;
        } else {
            var162 = -0.045598425;
        }
    } else {
        var162 = -0.045751665;
    }
    var var163;
    if (input[10] < 0.0031257481) {
        if (input[4] < 0.0051396275) {
            var163 = 0.0616543;
        } else {
            var163 = -0.04515578;
        }
    } else {
        var163 = -0.045321606;
    }
    var var164;
    if (input[10] < 0.0031257481) {
        if (input[4] < 0.0051396275) {
            var164 = 0.059731733;
        } else {
            var164 = -0.044752095;
        }
    } else {
        var164 = -0.044949464;
    }
    var var165;
    if (input[10] < 0.0031257481) {
        if (input[4] < 0.0051396275) {
            var165 = 0.05779318;
        } else {
            var165 = -0.04437386;
        }
    } else {
        var165 = -0.044576995;
    }
    var var166;
    if (input[4] < 0.0051396275) {
        if (input[3] < 1.0) {
            if (input[16] < 220.6457) {
                if (input[14] < 0.06255284) {
                    var166 = 0.045110516;
                } else {
                    if (input[21] < 432.4339) {
                        if (input[0] < 4.005393) {
                            if (input[3] < 0.00018652817) {
                                var166 = -0.010769781;
                            } else {
                                var166 = -0.042669237;
                            }
                        } else {
                            if (input[2] < 9.0) {
                                var166 = -0.0431531;
                            } else {
                                var166 = -0.0010811068;
                            }
                        }
                    } else {
                        if (input[16] < 123.56306) {
                            var166 = -0.002255618;
                        } else {
                            var166 = 0.02393666;
                        }
                    }
                }
            } else {
                if (input[8] < 8.012929) {
                    var166 = 0.05249525;
                } else {
                    var166 = 0.0025926013;
                }
            }
        } else {
            if (input[0] < 14.0) {
                if (input[6] < 0.0028783868) {
                    if (input[0] < 7.011756) {
                        if (input[14] < 0.09106716) {
                            if (input[2] < 7.0033903) {
                                var166 = 0.05402623;
                            } else {
                                var166 = 0.038181238;
                            }
                        } else {
                            if (input[0] < 5.992449) {
                                var166 = -0.015731048;
                            } else {
                                var166 = 0.031980004;
                            }
                        }
                    } else {
                        if (input[0] < 11.0) {
                            if (input[9] < 0.32253665) {
                                var166 = 0.0018505689;
                            } else {
                                var166 = -0.036603842;
                            }
                        } else {
                            if (input[0] < 11.003479) {
                                var166 = 0.042637832;
                            } else {
                                var166 = -0.0054306644;
                            }
                        }
                    }
                } else {
                    var166 = -0.04368638;
                }
            } else {
                if (input[14] < 0.08334797) {
                    if (input[0] < 14.010872) {
                        if (input[8] < 1.0) {
                            if (input[8] < 0.008619003) {
                                var166 = 0.041883186;
                            } else {
                                var166 = -0.040840633;
                            }
                        } else {
                            if (input[14] < 0.02631579) {
                                var166 = 0.055022724;
                            } else {
                                var166 = 0.04731056;
                            }
                        }
                    } else {
                        if (input[0] < 16.0) {
                            var166 = -0.041751076;
                        } else {
                            if (input[15] < 610.1605) {
                                var166 = 0.04762484;
                            } else {
                                var166 = -0.015685303;
                            }
                        }
                    }
                } else {
                    if (input[16] < 109.710144) {
                        if (input[21] < 64.03357) {
                            if (input[8] < 11.014492) {
                                var166 = 0.038263798;
                            } else {
                                var166 = -0.0086298585;
                            }
                        } else {
                            if (input[20] < 171.1529) {
                                var166 = 0.014137563;
                            } else {
                                var166 = -0.020897364;
                            }
                        }
                    } else {
                        if (input[14] < 0.12075694) {
                            if (input[9] < 3.213447) {
                                var166 = -0.010058587;
                            } else {
                                var166 = 0.043353494;
                            }
                        } else {
                            if (input[13] < 0.9948157) {
                                var166 = 0.013244114;
                            } else {
                                var166 = 0.0492878;
                            }
                        }
                    }
                }
            }
        }
    } else {
        var166 = -0.04410954;
    }
    var var167;
    if (input[10] < 0.0031257481) {
        if (input[4] < 0.0051396275) {
            var167 = 0.054702424;
        } else {
            var167 = -0.04370202;
        }
    } else {
        var167 = -0.043969877;
    }
    var var168;
    if (input[10] < 0.0031257481) {
        if (input[4] < 0.0051396275) {
            var168 = 0.05331938;
        } else {
            var168 = -0.043403443;
        }
    } else {
        var168 = -0.04366574;
    }
    var var169;
    if (input[10] < 0.0031257481) {
        if (input[4] < 0.0051396275) {
            var169 = 0.052274838;
        } else {
            var169 = -0.04312121;
        }
    } else {
        var169 = -0.043415654;
    }
    var var170;
    if (input[10] < 0.0031257481) {
        if (input[4] < 0.0051396275) {
            var170 = 0.051158417;
        } else {
            var170 = -0.04286651;
        }
    } else {
        var170 = -0.04315405;
    }
    var var171;
    if (input[10] < 0.0031257481) {
        if (input[4] < 0.0051396275) {
            var171 = 0.050296877;
        } else {
            var171 = -0.042623196;
        }
    } else {
        var171 = -0.042934142;
    }
    var var172;
    if (input[10] < 0.0031257481) {
        if (input[4] < 0.0051396275) {
            var172 = 0.04937827;
        } else {
            var172 = -0.042400274;
        }
    } else {
        var172 = -0.042706136;
    }
    var var173;
    if (input[10] < 0.0031257481) {
        if (input[4] < 0.0051396275) {
            var173 = 0.04855051;
        } else {
            var173 = -0.042193208;
        }
    } else {
        var173 = -0.042498622;
    }
    var var174;
    if (input[10] < 0.0031257481) {
        if (input[4] < 0.0051396275) {
            var174 = 0.047785375;
        } else {
            var174 = -0.042002138;
        }
    } else {
        var174 = -0.042305604;
    }
    var var175;
    if (input[10] < 0.0031257481) {
        if (input[4] < 0.0051396275) {
            var175 = 0.047117565;
        } else {
            var175 = -0.041821532;
        }
    } else {
        var175 = -0.042126793;
    }
    var var176;
    if (input[10] < 0.0031257481) {
        if (input[4] < 0.0051396275) {
            var176 = 0.04650541;
        } else {
            var176 = -0.041649226;
        }
    } else {
        var176 = -0.041954003;
    }
    var var177;
    if (input[4] < 0.0051396275) {
        if (input[3] < 1.0) {
            if (input[16] < 220.6457) {
                if (input[14] < 0.06255284) {
                    var177 = 0.03307191;
                } else {
                    if (input[21] < 432.4339) {
                        if (input[19] < 2552.0) {
                            if (input[2] < 8.79533) {
                                var177 = -0.038739637;
                            } else {
                                var177 = -0.01123933;
                            }
                        } else {
                            if (input[3] < 0.00018652817) {
                                var177 = 0.023306014;
                            } else {
                                var177 = -0.033483103;
                            }
                        }
                    } else {
                        var177 = 0.014579723;
                    }
                }
            } else {
                var177 = 0.03915605;
            }
        } else {
            if (input[0] < 14.0) {
                if (input[6] < 0.0028783868) {
                    if (input[0] < 7.011756) {
                        if (input[14] < 0.08334797) {
                            if (input[2] < 7.0033903) {
                                var177 = 0.04362613;
                            } else {
                                var177 = 0.030963723;
                            }
                        } else {
                            if (input[0] < 5.992449) {
                                var177 = -0.014777322;
                            } else {
                                var177 = 0.027880399;
                            }
                        }
                    } else {
                        if (input[0] < 11.0) {
                            if (input[0] < 8.001255) {
                                var177 = -0.0020751026;
                            } else {
                                var177 = -0.036850296;
                            }
                        } else {
                            if (input[0] < 11.003479) {
                                var177 = 0.033386756;
                            } else {
                                var177 = -0.0049241357;
                            }
                        }
                    }
                } else {
                    var177 = -0.0409292;
                }
            } else {
                if (input[14] < 0.08334797) {
                    if (input[0] < 14.010872) {
                        if (input[8] < 1.0) {
                            if (input[8] < 0.008619003) {
                                var177 = 0.034732286;
                            } else {
                                var177 = -0.035115562;
                            }
                        } else {
                            if (input[14] < 0.03846154) {
                                var177 = 0.044547908;
                            } else {
                                var177 = 0.038077153;
                            }
                        }
                    } else {
                        if (input[0] < 16.0) {
                            var177 = -0.03688245;
                        } else {
                            if (input[15] < 610.1605) {
                                var177 = 0.038780976;
                            } else {
                                var177 = -0.005053635;
                            }
                        }
                    }
                } else {
                    if (input[5] < 17.0) {
                        if (input[21] < 112.121025) {
                            if (input[5] < 6.032487) {
                                var177 = 0.0016169943;
                            } else {
                                var177 = -0.0330594;
                            }
                        } else {
                            if (input[16] < 117.77187) {
                                var177 = 0.0044759805;
                            } else {
                                var177 = 0.032371126;
                            }
                        }
                    } else {
                        if (input[23] < 0.91726315) {
                            var177 = -0.005026223;
                        } else {
                            if (input[21] < 83.004555) {
                                var177 = 0.03508852;
                            } else {
                                var177 = 0.01201487;
                            }
                        }
                    }
                }
            }
        }
    } else {
        var177 = -0.04166225;
    }
    var var178;
    if (input[10] < 0.0031257481) {
        if (input[4] < 0.0051396275) {
            var178 = 0.045599382;
        } else {
            var178 = -0.04134352;
        }
    } else {
        var178 = -0.04170963;
    }
    var var179;
    if (input[10] < 0.0031257481) {
        if (input[4] < 0.0051396275) {
            var179 = 0.045113396;
        } else {
            var179 = -0.04120374;
        }
    } else {
        var179 = -0.04157179;
    }
    var var180;
    if (input[10] < 0.0031257481) {
        if (input[4] < 0.0051396275) {
            var180 = 0.044680648;
        } else {
            var180 = -0.04107389;
        }
    } else {
        var180 = -0.04143824;
    }
    var var181;
    if (input[10] < 0.0031257481) {
        if (input[4] < 0.0051396275) {
            var181 = 0.044285353;
        } else {
            var181 = -0.04095223;
        }
    } else {
        var181 = -0.041325536;
    }
    var var182;
    if (input[10] < 0.0031257481) {
        if (input[4] < 0.0051396275) {
            var182 = 0.043913893;
        } else {
            var182 = -0.040835332;
        }
    } else {
        var182 = -0.041212223;
    }
    var var183;
    if (input[10] < 0.0031257481) {
        if (input[16] < 126.17736) {
            var183 = 0.043323312;
        } else {
            if (input[16] < 126.900024) {
                var183 = -0.040713705;
            } else {
                var183 = 0.04316909;
            }
        }
    } else {
        var183 = -0.04111657;
    }
    var var184;
    if (input[10] < 0.0031257481) {
        if (input[4] < 0.0051396275) {
            var184 = 0.04332893;
        } else {
            var184 = -0.040611953;
        }
    } else {
        var184 = -0.04101817;
    }
    var var185;
    if (input[4] < 0.0051396275) {
        if (input[3] < 1.0) {
            if (input[16] < 220.6457) {
                if (input[14] < 0.06451613) {
                    var185 = 0.018692393;
                } else {
                    if (input[19] < 2552.0) {
                        if (input[20] < 320.76828) {
                            if (input[0] < 4.005393) {
                                var185 = -0.024762027;
                            } else {
                                var185 = -0.03838773;
                            }
                        } else {
                            var185 = -0.005769623;
                        }
                    } else {
                        var185 = -0.0013078713;
                    }
                }
            } else {
                var185 = 0.034066305;
            }
        } else {
            if (input[0] < 14.0) {
                if (input[6] < 0.0028783868) {
                    if (input[0] < 7.011756) {
                        if (input[14] < 0.09106716) {
                            if (input[2] < 7.0033903) {
                                var185 = 0.04027091;
                            } else {
                                var185 = 0.02722943;
                            }
                        } else {
                            if (input[0] < 5.992449) {
                                var185 = -0.013446026;
                            } else {
                                var185 = 0.01999809;
                            }
                        }
                    } else {
                        if (input[0] < 11.0) {
                            if (input[0] < 8.001255) {
                                var185 = -0.005368133;
                            } else {
                                var185 = -0.032097317;
                            }
                        } else {
